{"input_size": 4, "hidden_size": 64, "output_size": 3, "W1": [[-0.5607509566170149, 0.6167944362996687, -0.15428467778437463, 0.1799255807145757, 0.15916184571079348, 0.6515147274905816, 0.014688322048897917, 0.1707076567283615, -0.79865378642759, -1.4103463949380497, 0.10561453941997247, 0.34053957825940145, 0.6231195572427032, -0.0632852154549943, 0.7182141312736129, -0.5429154087551064, 0.5433957317246124, -0.8476039780146152, -0.5001980218726652, 0.04175760703508931, 0.6859254242784377, 0.6107889312583036, -0.2946488105901902, 1.1897755172438336, 0.10147966526237848, -0.28630939463368155, 0.12151788467391442, 0.30353213544058033, 0.20855550266443604, -0.9412699945584946, 0.11129416552661325, -0.2842297196855447, 0.08465200119004578, -0.4472520100531724, -0.6899621828718853, 0.5856155641033068, 1.131223120755503, -0.6579833400872422, -1.0438217538732386, 0.22831216285431674, 0.583432631709782, -0.5267729313952019, -1.06439500017595, -0.01396020776759595, 0.0637986954875886, -0.11586110999316411, 1.0420136488479947, -0.1453232330439125, -1.0822992546030175, -0.9284066635612633, -0.4766505620647113, 1.296172965246252, 0.818345976806493, -0.6841352402328758, 0.07700281383051415, -0.40888366065677856, 0.44879158777209927, -1.211300768070101, -0.7191786346709726, 0.5901615100549038, 1.1847216228327533, -0.15822296122266785, 0.4649281659243942, 0.590687149446924], [-0.5839808789484945, -0.11910470637074869, 0.6660312608448403, -0.33357180838217704, 0.3923365297707549, -0.7183865749697882, -0.0091311524349096, -0.32848919456915743, -1.6107717711499285, 0.1985943564616643, 0.5979047096363155, 0.9397040745251304, 0.9841637072647225, -0.1517741164004811, -0.27856649737861894, 1.2276973300285106, -0.3368902393203362, 0.24299140030290312, 0.4364453666195052, -0.16146350956093522, -0.41366290010103396, -0.11134908443497847, -1.582058803979061, 1.0159645042398655, -1.2274575772437917, -0.5526951087511836, 0.5952618872634697, -0.017535592947459468, 0.39584142766828473, -1.3534999988718075, 1.2546027648138731, 0.05299303662433451, -0.9323485857630595, -0.40397245488650946, 0.7241553244119889, 0.39919294322718335, 2.0159745394093465, 0.21937708032649816, -0.7937720443653471, -0.567490471538395, 0.4356422265566945, 0.12926459945006216, 0.8700996660380246, -0.29988552893007026, -0.5572148260073299, 0.33028621769789396, -0.5919461066574669, -0.27390419820196477, -1.05582095698819, -0.25805341320746666, 1.0403654986530801, 0.09498499440734846, 1.6668136302420338, 0.3047913930699753, 1.0531773927417702, -0.13409007516274943, 0.8273481219939196, 0.9866081688986111, -0.8202575448414335, 1.16435965706542, 0.8690823820495417, -0.9692846924202861, -0.059517588414493804, 0.6323551794755786], [0.7166385388609272, -0.3947305963588467, 0.8235046220242331, 0.4831949193676449, -0.27993220181880696, 1.2233287192061009, 0.4850287932419161, -0.32749395619442256, -0.2930023048627845, -0.13440398997813094, 0.1224313513631017, -0.2670893499093301, 0.6355556613972583, 0.5560750593081427, 0.1379174661483541, 0.3750133540577842, 1.0832568136389458, -0.47096093021400476, 0.2578332992926956, -1.5006680602120586, 1.3853263095061845, -0.981705952187889, -1.2522954443274759, 0.26578879115346804, -0.9061018636872356, -0.7249463195730627, 0.5567290632296149, 0.7406330344630593, 1.2545898346070485, 0.6436470511529703, 1.0858257266337932, 1.03147469788967, 0.47962475929436904, 0.6154295163233652, -0.1256478919438504, 0.48340397491314346, 1.2472926479082587, 0.13270839583199154, -0.5459269768640453, -0.7826966962010843, 0.8681828706288031, -0.5718712260030245, -1.0611606267665283, -1.5441638913616575, 1.4037691403339854, -0.5118188964159992, -0.3794982097772003, -0.6029319255730594, 1.2917668870204564, 1.0863847780159124, 0.7024664190374805, 1.2081046603015122, 0.1292266464844855, -0.4659138338474343, 0.8407953693299199, 0.9608550775326979, 0.2940738352891704, 0.7916247279227288, 0.561424020515384, -0.8074012043148361, -0.1257299473160578, -0.03845269399213284, 0.269803894266637, -0.0681461055288597], [0.8519721581875603, -0.12500702174186376, -1.1973222694134198, -0.9002188321061851, -1.508504879820555, -0.19666058741236836, 1.2198838719250873, -0.8717510722478002, -0.40462777415807344, -0.8915904541146028, 1.6392631276707519, 0.11377768332601639, 1.7131238600128578, 0.5294813339970399, 0.26150322688430655, 0.13963875827803776, 0.10452917330901902, -0.2067573480901647, 0.6773800050285822, -0.5629693257827558, 0.6975200655357812, -0.4845360231539294, -0.5862343135421813, 0.4095287079214492, 0.7232943038448364, -1.2680637226877474, 0.17002282075297245, 1.250137895687426, -0.7947769535287772, -0.20868403390601786, 1.5456924004200077, 0.3027598416059904, 0.8158831717422478, -0.788289829090806, -0.041929124792331005, -0.11023312667850423, 0.8077810307314645, -1.0144718304234968, -0.8997696902524669, 0.24287587749717782, 1.3183096145326907, 0.07583166563595732, 0.39709391494223256, -0.8564616575941344, -0.7034091809280314, -1.1372362193015113, -0.38943689165001505, -0.12499640791269322, 0.044761114777759764, 1.0729184451254787, 0.1293467598509738, 1.3418646352441086, 2.133447747381465, -1.248458300356153, 0.3997509547211616, -1.008747151056287, 1.1806230627747991, -0.4467871948348791, -0.35031266794949156, -0.2589600022499317, 0.11759450755087533, -0.6179781578687438, -0.07263954630252065, -1.2341999172064007]], "b1": [[0.0073499993227173046, 0.0947575220485796, 0.9303139608926629, 0.6308248555950606, -0.032426990031395125, 0.15732436104629502, -0.026997494060236216, -0.537035319336456, -0.3641702945295328, 0.37212168918150484, 0.033184750654335654, 0.059327233531476634, -0.2979410146840441, -0.10335827237125815, -0.0037701140340717764, -0.11785660668436228, -0.03717193537005543, 0.8080863942052838, -0.2525462441826266, -0.34451263983697306, -0.010276782219056037, 0.19424449493136198, -1.5031244761408833, -0.13791986922409205, -0.18976309936889502, -0.52623836596046, 0.0069710160871957385, -0.14193989047125716, 0.18400986151035256, 0.04392835564819832, -0.010971039506136367, -0.09073971751324364, 0.21264395648895276, 1.923615938858314, 0.09946726198527095, -0.0006488810037783183, -0.16349787577566866, 0.3617462158238504, -0.6185428200339377, -0.5220785748662048, -0.15736940820096956, -0.07026640897491027, 0.19459484867045793, -0.9574373299201394, 0.10363769648392555, 0.3923815282026773, 0.9477400112262839, -0.44885739010863324, 0.8142478499797658, 0.036635114421195644, -0.18890957477343245, -0.15085356842291886, -0.24525853003093404, -0.08364228406965205, -0.28828920828744675, 0.5460114325236775, -0.24666529945276766, 0.32592961012214844, 0.6353934411161405, -0.1399955847189856, -0.05488104522633366, -0.49695369892474855, -0.05083671197510747, 0.7764717656796983]], "W2": [[0.1777816120756895, 0.1926503218970407, 0.23569584825412376], [0.1793753661431119, 0.12235534454666476, 0.0028964397101536353], [1.0127112343692435, -0.4773228486782429, -0.49414414860838113], [0.33797025829294736, -0.17675307320239764, -0.773728125155427], [0.10344154592737781, 0.34643205096393787, -0.3002667396544745], [0.08526612802941647, 0.017990887303668164, -0.1907566459869958], [-0.39644454607921187, -0.0956170601199762, 0.42086555998627023], [-0.47816917419241567, 0.7062889703219523, -0.27142420338372286], [-0.4038079672894782, 0.916378973979969, -0.5604283137053165], [0.3634156288978887, 0.1925762035800829, -0.49518770668999945], [-0.3669054621123144, -0.1863974887328797, 0.7873922606120285], [-0.0612485585673515, -0.1730105091397695, 0.2928044895862704], [-1.2038493346988768, -0.23479308425410061, 1.0869506759440168], [-0.3091970600667572, -0.12696963167439812, 0.24281844994493773], [-0.02840310636442032, 0.14315677349514866, 0.36346143348899596], [-0.26736407806947293, -0.11657346875092867, 0.37693482444874743], [-0.03175800664532791, -0.08524753962677196, 0.2733166301394839], [0.665473831902832, -0.2553345063335755, -0.6215002898257107], [-0.324490920831194, -0.11167409966376059, 0.41674285690120205], [0.036934349584881204, 1.065561254096306, -0.23128664110769392], [-0.25851346971735556, -0.24585890487394554, 0.5434097442107677], [0.3597600328192714, 0.17179212050018408, -0.3308137720383907], [-1.5187731270567604, 1.7244424907943756, -0.27912401954669974], [-0.43273545470399943, -0.4969588467803402, 0.6708633409064421], [0.10918301668772325, 0.632977284726671, -0.26131364692614273], [-0.577883202243332, 0.8861829152138134, -0.25706619034054373], [0.05436507922216908, -0.11192085224439319, 0.4724356553357683], [-0.7372194419809556, -0.11107023345007866, 0.5242152956388082], [0.3357351437857093, -0.42817509856500524, -0.19228988297025024], [0.20149380855148769, 0.4575172278311196, -0.4271928728130999], [-0.830605153569206, -0.30610129686281146, 1.4764378024058258], [-0.13333285458843389, -0.19242466787565818, 0.4283971224057949], [-0.0592065614480529, -0.4180655222534559, -0.16522321960119435], [1.721395693684409, -0.7004815173094784, -0.7952513431846693], [0.11092827797588181, -0.23453479340766517, 0.2156275368038548], [-0.13447229080395257, -0.37087930562306703, 0.033820940705961186], [-0.6762772983173007, -0.7283965500533441, 1.074224259439134], [0.5108089529200872, 0.09447035113450085, -0.1075450845030916], [-0.8104415732467787, 0.5909038034309081, -0.32205540373042024], [-0.32755789058694135, 0.6784340339311105, -0.03869065858707118], [-0.7634302293464265, -0.43714743451744625, 0.9953725267498997], [0.009015529511749564, 0.17700665813662533, -0.16878275592964262], [0.03487442780110694, -0.0324823264239719, 0.01037827668922649], [-0.8240552432799866, 1.1055594694625255, -0.14461435903844255], [0.2670635001836274, -0.018761088574057994, -0.10529189881403754], [0.4213704704937869, 0.20156033683840205, -0.46456650835239083], [0.7455298579276666, -0.3364247327951018, -0.19259971271779525], [-0.24890183638502386, 0.6464977386692027, -0.11944429090323641], [0.6796529796148093, -0.30353890148840273, -0.2223551154516354], [0.07421780915971898, 0.05515834752176702, 0.5509852362688973], [-0.30196030390302886, -0.0360328382009215, 0.5614185811921709], [-0.6679225749257943, -0.47880277440962876, 0.9758773474371579], [-1.310525991458931, -0.20698424946593938, 1.6714954460533287], [-0.15358088773442166, 0.2925604288502144, -0.5404788958146995], [-0.8008934896125731, -0.03846209147004829, 0.3439918560406726], [0.628678352070597, -0.04666015623018266, -0.36894437094904103], [-0.8486743702558833, -0.011326289905420698, 1.0012050498137346], [0.3064673827372286, -0.38162427393168674, -0.03240333087561939], [0.47681128270517736, 0.03588226075926792, -0.7205717417701194], [-0.14791776138069038, 0.003368568468425737, 0.3268694068020236], [-0.2359571975313306, -0.1467209865908425, 0.3514271805143854], [-0.6980913131734584, 0.6195927812279587, -0.027705437694225746], [-0.22204446359527083, 0.07628127101823626, -0.1131399450684024], [0.8037836877161654, -0.1735152323152094, -0.523728299124861]], "b2": [[1.8689309775971823, -1.325351559233733, -0.5435794183634466]]}